digraph Tree {
node [shape=box, style="filled", color="black"] ;
0 [label="(255, 50, 50, 255) <= 2223.5\nmse = 1.025\nsamples = 4173\nvalue = 0.082", fillcolor="#fffefd"] ;
1 [label="(255, 50, 255, 255) <= 0.5\nmse = 0.745\nsamples = 4159\nvalue = 0.061", fillcolor="#fffefe"] ;
0 -> 1 [labeldistance=2.5, labelangle=45, headlabel="True"] ;
2 [label="(150, 150, 50, 255) <= 2650.5\nmse = 0.039\nsamples = 2588\nvalue = 0.018", fillcolor="#fffefe"] ;
1 -> 2 ;
3 [label="(255, 200, 50, 255) <= 1.5\nmse = 0.016\nsamples = 1604\nvalue = 0.005", fillcolor="#fffffe"] ;
2 -> 3 ;
4 [label="(50, 50, 255, 255) <= 3801.0\nmse = 0.054\nsamples = 208\nvalue = 0.018", fillcolor="#fffefe"] ;
3 -> 4 ;
5 [label="mse = 0.0\nsamples = 201\nvalue = 0.001", fillcolor="#fffffe"] ;
4 -> 5 ;
6 [label="mse = 1.369\nsamples = 7\nvalue = 0.482", fillcolor="#fefbf9"] ;
4 -> 6 ;
7 [label="(247, 247, 150, 255) <= 7.5\nmse = 0.011\nsamples = 1396\nvalue = 0.003", fillcolor="#fffffe"] ;
3 -> 7 ;
8 [label="mse = 0.249\nsamples = 57\nvalue = -0.065", fillcolor="#ffffff"] ;
7 -> 8 ;
9 [label="mse = 0.001\nsamples = 1339\nvalue = 0.006", fillcolor="#fffffe"] ;
7 -> 9 ;
10 [label="(150, 150, 50, 255) <= 2672.0\nmse = 0.075\nsamples = 984\nvalue = 0.039", fillcolor="#fffefe"] ;
2 -> 10 ;
11 [label="mse = 8.926\nsamples = 5\nvalue = 1.565", fillcolor="#fdf4ee"] ;
10 -> 11 ;
12 [label="(255, 50, 50, 255) <= 364.5\nmse = 0.017\nsamples = 979\nvalue = 0.031", fillcolor="#fffefe"] ;
10 -> 12 ;
13 [label="mse = 0.002\nsamples = 943\nvalue = 0.026", fillcolor="#fffefe"] ;
12 -> 13 ;
14 [label="mse = 0.406\nsamples = 36\nvalue = 0.158", fillcolor="#fffdfd"] ;
12 -> 14 ;
15 [label="(100, 150, 255, 255) <= 4150.0\nmse = 1.9\nsamples = 1571\nvalue = 0.133", fillcolor="#fffefd"] ;
1 -> 15 ;
16 [label="pix <= 22026.0\nmse = 13.705\nsamples = 208\nvalue = 0.54", fillcolor="#fefbf9"] ;
15 -> 16 ;
17 [label="(150, 150, 50, 255) <= 1752.0\nmse = 2.311\nsamples = 198\nvalue = 0.15", fillcolor="#fffefd"] ;
16 -> 17 ;
18 [label="mse = 0.0\nsamples = 166\nvalue = 0.005", fillcolor="#fffffe"] ;
17 -> 18 ;
19 [label="mse = 13.62\nsamples = 32\nvalue = 0.904", fillcolor="#fef8f5"] ;
17 -> 19 ;
20 [label="(255, 200, 50, 255) <= 4499.0\nmse = 176.557\nsamples = 10\nvalue = 8.269", fillcolor="#f3c7a7"] ;
16 -> 20 ;
21 [label="mse = 257.647\nsamples = 4\nvalue = 18.603", fillcolor="#e58139"] ;
20 -> 21 ;
22 [label="mse = 3.835\nsamples = 6\nvalue = 1.38", fillcolor="#fdf5f0"] ;
20 -> 22 ;
23 [label="(255, 50, 50, 255) <= 1369.5\nmse = 0.069\nsamples = 1363\nvalue = 0.07", fillcolor="#fffefe"] ;
15 -> 23 ;
24 [label="(255, 200, 50, 255) <= 6596.0\nmse = 0.051\nsamples = 1336\nvalue = 0.063", fillcolor="#fffefe"] ;
23 -> 24 ;
25 [label="mse = 0.022\nsamples = 783\nvalue = 0.035", fillcolor="#fffefe"] ;
24 -> 25 ;
26 [label="mse = 0.089\nsamples = 553\nvalue = 0.103", fillcolor="#fffefd"] ;
24 -> 26 ;
27 [label="(100, 150, 255, 255) <= 8444.5\nmse = 0.846\nsamples = 27\nvalue = 0.439", fillcolor="#fefcfa"] ;
23 -> 27 ;
28 [label="mse = 0.01\nsamples = 11\nvalue = 0.056", fillcolor="#fffefe"] ;
27 -> 28 ;
29 [label="mse = 1.251\nsamples = 16\nvalue = 0.702", fillcolor="#fefaf7"] ;
27 -> 29 ;
30 [label="pix <= 54425.5\nmse = 47.236\nsamples = 14\nvalue = 6.165", fillcolor="#f6d5bd"] ;
0 -> 30 [labeldistance=2.5, labelangle=-45, headlabel="False"] ;
31 [label="mse = 7.407\nsamples = 5\nvalue = 1.718", fillcolor="#fdf3ec"] ;
30 -> 31 ;
32 [label="(150, 150, 50, 255) <= 10420.5\nmse = 52.274\nsamples = 9\nvalue = 8.635", fillcolor="#f3c4a3"] ;
30 -> 32 ;
33 [label="mse = 78.419\nsamples = 4\nvalue = 10.747", fillcolor="#f0b68c"] ;
32 -> 33 ;
34 [label="mse = 24.937\nsamples = 5\nvalue = 6.946", fillcolor="#f5d0b5"] ;
32 -> 34 ;
}